{
  "checkpoint": {
    "accuracy": 0.6535914416709119,
    "architecture": "Qwen2ForSequenceClassification",
    "eval_examples": 9815.0,
    "method": "bitdistill",
    "path": "checkpoints/bitdistill-glue-seqcls-longwarmup/Qwen-Qwen2.5-0.5B/mnli/bitdistill-longwarmup-row-layer-8",
    "prediction_trace": "checkpoints/bitdistill-glue-seqcls-longwarmup/Qwen-Qwen2.5-0.5B/mnli/bitdistill-longwarmup-row-layer-8/eval_predictions.jsonl",
    "scale_mode": "row",
    "task": "mnli"
  },
  "classifier_head_application": {
    "bias_key": null,
    "embedding_shape": [
      896
    ],
    "finite_embedding": true,
    "finite_logits": true,
    "logits": [
      3.11752986907959,
      -3.164886951446533,
      -1.0898054838180542
    ],
    "prediction": 0,
    "probabilities": [
      0.9835212230682373,
      0.001838081399910152,
      0.01464067678898573
    ],
    "weight_key": "score_weight",
    "weight_shape": [
      3,
      896
    ]
  },
  "conversion": {
    "architecture": "Qwen2ForSequenceClassification",
    "bitdistill_subln": true,
    "checkpoint_dir": "checkpoints/bitdistill-glue-seqcls-longwarmup/Qwen-Qwen2.5-0.5B/mnli/bitdistill-longwarmup-row-layer-8",
    "classifier_head_npz": "models/seqcls-backbone-i2sr/Qwen-Qwen2.5-0.5B/mnli/bitdistill-longwarmup-row-layer-8_score_head.npz",
    "classifier_head_sidecar": "models/seqcls-backbone-i2sr/Qwen-Qwen2.5-0.5B/mnli/bitdistill-longwarmup-row-layer-8_score_head.npz",
    "classifier_head_tensors": [
      "score_weight"
    ],
    "converter": "3rdparty/llama.cpp/convert_hf_to_gguf.py",
    "converter_architecture": "Qwen2ForCausalLM",
    "copied_tensors": 170,
    "format_scope": "scalar-scale I2_S by default; row-scale only with --row-scale-prototype or --row-scale-qtype=i2_sr",
    "gguf_arch": "bitnet-25",
    "has_native_i2s_gguf_python_constants": true,
    "has_native_i2sr_gguf_python_constants": true,
    "i2_s_dtype": 36,
    "i2_sr_dtype": 40,
    "limitations": [
      "Rejects row-scale checkpoints unless --row-scale-prototype or --row-scale-qtype=i2_sr is passed.",
      "Scalar mode uses the existing tensor-scale I2_S layout.",
      "Row-scale prototype mode requires a matching experimental runtime layout and overloads I2_S.",
      "Row-scale i2_sr mode requires a runtime with a stable I2_SR qtype.",
      "Keeps output.weight in F16 by default to match llama-quantize policy."
    ],
    "mostly_i2_s_file_type": 40,
    "mostly_i2_sr_file_type": 41,
    "outfile": "models/seqcls-backbone-i2sr/Qwen-Qwen2.5-0.5B/mnli/bitdistill-longwarmup-row-layer-8_bitnet25_i2_sr.gguf",
    "outfile_size_bytes": 369734976,
    "output_f16_tensors": 0,
    "output_ftype": 41,
    "output_ftype_name": "MOSTLY_I2_SR",
    "output_tensors": 338,
    "packed_i2s_bytes": 90678528,
    "rope_theta_from_rope_parameters": 1000000.0,
    "row_scale_i2s_packed": 168,
    "row_scale_prototype": false,
    "row_scale_qtype": "i2_sr",
    "row_scale_rejected": 0,
    "synthetic_vocab_for_smoke": false,
    "ternary_i2s_packed": 168,
    "ternary_state": "checkpoints/bitdistill-glue-seqcls-longwarmup/Qwen-Qwen2.5-0.5B/mnli/bitdistill-longwarmup-row-layer-8/ternary_state_dict.pt"
  },
  "date": "2026-05-15",
  "files": {
    "classifier_head": {
      "exists": true,
      "path": "models/seqcls-backbone-i2sr/Qwen-Qwen2.5-0.5B/mnli/bitdistill-longwarmup-row-layer-8_score_head.npz",
      "size_bytes": 11030,
      "size_mib": 0.010519027709960938
    },
    "conversion_summary": {
      "exists": true,
      "path": "benchmark_results/seqcls_longwarmup_backbone_i2sr_smoke_2026-05-15.json",
      "size_bytes": 2129,
      "size_mib": 0.0020303726196289062
    },
    "gguf": {
      "exists": true,
      "path": "models/seqcls-backbone-i2sr/Qwen-Qwen2.5-0.5B/mnli/bitdistill-longwarmup-row-layer-8_bitnet25_i2_sr.gguf",
      "size_bytes": 369734976,
      "size_mib": 352.60675048828125
    }
  },
  "limitations": [
    "Classifier head is applied outside llama.cpp from an NPZ sidecar.",
    "GGUF does not yet contain sequence-classification label metadata or native score-head execution.",
    "Smoke validates a single prompt path only; it is not a full GLUE CPU accuracy benchmark.",
    "Default binary is the portable AVX2 build, not an AVX-512-tuned benchmark binary."
  ],
  "prompt": "Premise: A person is riding a bicycle. Hypothesis: Someone is outdoors.",
  "runtime_smoke": {
    "command": [
      "/mnt/slurm_nfs/a6abdulm/projects/BitNet/build-portable-avx2/bin/llama-embedding",
      "-m",
      "/mnt/slurm_nfs/a6abdulm/projects/BitNet/models/seqcls-backbone-i2sr/Qwen-Qwen2.5-0.5B/mnli/bitdistill-longwarmup-row-layer-8_bitnet25_i2_sr.gguf",
      "-p",
      "Premise: A person is riding a bicycle. Hypothesis: Someone is outdoors.",
      "--pooling",
      "last",
      "--attention",
      "causal",
      "--embd-output-format",
      "json",
      "--embd-normalize",
      "-1",
      "-ngl",
      "0",
      "-t",
      "24",
      "-c",
      "128"
    ],
    "elapsed_seconds": 1.5023853708989918,
    "embedding": [
      2.9158156,
      -6.2151222,
      0.5795112,
      -4.8769398,
      3.5042694,
      -3.1863658,
      10.1155548,
      0.5812977,
      -5.0574279,
      -5.4038258,
      -3.2618196,
      6.7195983,
      5.8784261,
      1.9343759,
      7.8006744,
      0.324534,
      -2.2138858,
      -8.4212189,
      -9.1687975,
      15.4998875,
      -3.2539515,
      -6.3949986,
      2.3900084,
      8.0981112,
      0.6209981,
      -7.4402843,
      -16.3762684,
      -0.9883248,
      2.0951157,
      -3.7102757,
      -0.5010973,
      -3.6855218,
      3.622299,
      2.3397262,
      7.0063281,
      -0.6159252,
      14.5124426,
      -10.2534113,
      5.7574821,
      2.5917594,
      2.0674565,
      4.8014169,
      -5.7235241,
      6.7908759,
      -5.2734618,
      -4.9467993,
      -1.7632945,
      -1.8294505,
      -2.6099355,
      0.8746856,
      -7.1757054,
      3.9486036,
      -0.9871694,
      -30.9102573,
      -8.0943203,
      -1.6837457,
      8.5415926,
      -2.2659216,
      -2.0532701,
      -4.9093714,
      -7.0566316,
      -0.7319217,
      15.0608864,
      -2.1820872,
      2.292021,
      7.0508857,
      -1.973314,
      1.3607017,
      -3.8436677,
      2.1645465,
      -0.7612104,
      4.8971062,
      0.1946904,
      3.3754926,
      -5.997293,
      -18.2969894,
      1.3924282,
      4.7715693,
      -3.1040998,
      -0.4249426,
      0.5583452,
      10.4599476,
      5.2051444,
      -10.9818707,
      -3.6205912,
      7.1398621,
      7.3576136,
      -3.1998322,
      5.5079207,
      5.494597,
      -6.9815569,
      4.7501078,
      0.1023928,
      -1.8428261,
      -6.721416,
      2.1418443,
      -3.7789767,
      1.3781446,
      -1.1174487,
      5.1167016,
      -5.0560145,
      11.2045956,
      3.5986762,
      8.0089645,
      13.1846218,
      -2.7193763,
      3.5268269,
      -4.6270719,
      -6.817843,
      0.0347348,
      2.0259531,
      -8.2910624,
      2.3022609,
      7.2945919,
      2.5016727,
      -3.0996079,
      -9.3459883,
      5.1710973,
      0.9502616,
      -6.7458806,
      -11.1861229,
      -2.271816,
      -7.0328288,
      2.1309276,
      -1.5224885,
      -0.9869267,
      -3.6895025,
      -3.5701632,
      -9.0265512,
      3.558686,
      2.8754232,
      2.7474248,
      0.2861436,
      4.4080849,
      2.5213673,
      -0.1748881,
      0.1115342,
      1.8297161,
      -16.2264805,
      4.5524082,
      -9.8293476,
      -17.5919209,
      -2.9670186,
      0.0564625,
      -2.991739,
      -0.3854627,
      2.3657467,
      3.3266933,
      2.8243263,
      5.5022907,
      -3.7451129,
      -7.4715657,
      -7.9671097,
      0.0484779,
      0.7111638,
      -8.6002808,
      -3.6968372,
      5.7741251,
      6.875514,
      6.0807724,
      4.8557186,
      1.0858229,
      3.8840787,
      0.1439119,
      -0.1135775,
      3.8573933,
      0.8762724,
      1.7888465,
      -5.2072787,
      4.474761,
      -6.2417102,
      10.8395338,
      -6.6227746,
      -4.8573933,
      4.2839479,
      1.4728466,
      -6.1713285,
      0.7980716,
      -5.8259182,
      0.1196678,
      6.9097762,
      7.1156712,
      -6.0386744,
      -0.5138827,
      -2.8919013,
      -0.3284743,
      2.5617404,
      -4.9224315,
      7.7595682,
      7.6894474,
      4.6818027,
      0.6789005,
      9.9612246,
      -4.789948,
      4.9352207,
      -1.6449423,
      -3.178288,
      3.4450099,
      8.3396616,
      1.6194291,
      -9.8359785,
      -1.5674784,
      4.213902,
      5.0641141,
      -5.2806005,
      -5.617485,
      10.227684,
      -3.3468456,
      -11.1047211,
      -3.4735737,
      -0.6417531,
      -0.480758,
      -9.4987326,
      -6.443543,
      -3.7623849,
      0.6175468,
      -3.758882,
      0.254897,
      5.4584837,
      0.0510655,
      8.7253847,
      -16.1873989,
      -9.0204668,
      4.280817,
      -0.0112383,
      -0.7482292,
      -3.1776357,
      1.297863,
      -1.4622285,
      2.5693448,
      -6.1563921,
      2.3906956,
      1.2646248,
      5.4463453,
      1.1713717,
      -4.3893614,
      -10.0307751,
      5.8858957,
      -0.8980867,
      -7.9025187,
      -3.1607523,
      19.2828445,
      0.4897353,
      -0.7297825,
      0.0705445,
      1.0502232,
      1.8543215,
      13.1571789,
      -2.159431,
      0.2848741,
      -3.9028916,
      -2.8321033,
      -1.9088367,
      -4.796618,
      1.766446,
      -7.8727942,
      -4.9099402,
      -1.6266021,
      10.2001905,
      -1.5629022,
      3.5710576,
      0.8173841,
      -12.0664177,
      -0.6543198,
      -3.3059309,
      0.3223157,
      -1.0483342,
      0.8518416,
      0.4690658,
      -1.0626969,
      0.8395267,
      -4.8891244,
      1.7205998,
      -0.0652531,
      1.2768718,
      5.3355503,
      -6.1164355,
      2.2232342,
      -11.3586073,
      0.6609592,
      -8.3646383,
      3.4605823,
      2.3885427,
      11.385066,
      -2.7211075,
      -1.629195,
      3.9817958,
      9.3204031,
      8.571909,
      7.5130358,
      -2.0438507,
      4.1096258,
      0.7798771,
      0.9735461,
      3.9400153,
      11.7044506,
      -9.6217432,
      0.4511307,
      -1.8560838,
      2.7903225,
      -9.3517704,
      0.1562749,
      3.9665589,
      -4.9233456,
      1.3302276,
      3.3876488,
      -4.2745876,
      -3.6758633,
      7.1173339,
      -15.1684198,
      0.8053284,
      -5.1715817,
      6.3533921,
      -3.143517,
      4.8309331,
      17.1550236,
      5.9640713,
      -3.4145951,
      6.6728311,
      1.392542,
      1.6947721,
      3.7427647,
      3.7689056,
      5.2149386,
      -9.2988853,
      3.7307134,
      -7.7887063,
      4.3020287,
      0.3062483,
      -2.376358,
      8.5807524,
      -5.2905107,
      2.5243728,
      15.364254,
      -5.6545281,
      -2.1719334,
      2.1175344,
      -15.2056341,
      10.5371637,
      -5.0552135,
      -3.4031827,
      2.1590209,
      1.6191424,
      1.7506497,
      -13.8069735,
      3.0904961,
      -3.8355925,
      1.5699743,
      6.3735285,
      8.9767065,
      -2.6219771,
      7.6867757,
      3.1804459,
      -3.3375759,
      -4.9494505,
      1.7231594,
      -2.5415077,
      2.7326336,
      1.1594957,
      -0.1944232,
      7.2633963,
      -3.1176989,
      -2.1942673,
      3.1760466,
      3.6965957,
      -1.9804904,
      -4.3973403,
      3.548986,
      -4.8908567,
      -2.0808706,
      -4.8033619,
      -5.5501976,
      23.2909431,
      -1.4202074,
      -2.2493551,
      -5.6797366,
      0.7193022,
      -3.5253665,
      -0.893255,
      -4.6001596,
      2.3902929,
      -2.6327865,
      0.8111591,
      -11.1697311,
      9.0679512,
      -7.8118253,
      3.726095,
      -2.1003926,
      4.3181758,
      -6.8223853,
      3.9695327,
      2.5081415,
      -2.5554492,
      -9.405242,
      5.6083221,
      -2.2452445,
      -2.9882257,
      4.4594364,
      -0.8508849,
      -7.7254519,
      -3.7502699,
      1.0462766,
      -1.4302639,
      0.8238112,
      -0.7496111,
      9.5966043,
      5.9138484,
      -0.4942089,
      -0.6765997,
      3.4378316,
      8.6303358,
      -4.5898538,
      -2.6943359,
      -0.6123986,
      2.7447357,
      12.9616537,
      1.6070327,
      -1.8806169,
      7.966886,
      -1.2893111,
      7.4526968,
      -8.0932302,
      5.0523372,
      -5.8787937,
      -0.4391518,
      -5.7474594,
      1.0675273,
      -1.0098073,
      1.1208295,
      6.5206985,
      -2.4958491,
      12.3270283,
      -4.6813059,
      3.3583968,
      -0.4216187,
      -4.9663053,
      4.6969991,
      -0.2763134,
      -14.2785587,
      19.9048672,
      -2.5073028,
      -1.8227813,
      -1.1449978,
      10.1126299,
      -0.1903927,
      5.6331215,
      6.1708889,
      5.1107874,
      -8.9747334,
      -5.5161047,
      20.2665348,
      4.4866004,
      -6.0036225,
      7.0235114,
      4.2222586,
      -5.5655847,
      5.2683129,
      8.1950521,
      -6.0019078,
      -0.8697255,
      -8.1783323,
      -12.0277719,
      0.1334703,
      0.3032155,
      3.5928037,
      5.5265517,
      -5.1572256,
      -1.9236796,
      2.0520847,
      10.1012068,
      -11.7187815,
      -3.0992863,
      -2.1705391,
      0.3965407,
      2.0057411,
      17.9756947,
      -9.5426264,
      2.0474849,
      0.8245963,
      0.4231926,
      -6.2498646,
      2.5767164,
      -1.3078437,
      3.0789509,
      1.6662846,
      -5.3486238,
      -1.5721095,
      -11.9485416,
      -2.5533569,
      3.9875872,
      -0.1602974,
      2.1508546,
      -14.0187273,
      -3.1361754,
      -2.4705222,
      15.1267395,
      9.4082708,
      -1.8474469,
      2.5941803,
      2.6298428,
      -7.5179229,
      -12.7828732,
      7.2712674,
      6.4221029,
      11.469243,
      -1.6208488,
      5.5556011,
      -3.3404441,
      -2.2107506,
      0.4113617,
      8.569334,
      -6.3518977,
      1.6586149,
      -1.7357351,
      5.6249957,
      -0.0631115,
      -10.8083162,
      5.9453435,
      -5.180531,
      2.3278317,
      3.6930194,
      11.5578775,
      10.3408251,
      8.0165844,
      4.9106879,
      8.8322525,
      3.1373427,
      -2.3734128,
      -2.300473,
      -3.6902399,
      -6.7956834,
      -5.4816451,
      -5.210197,
      13.1994791,
      -0.7561975,
      -0.470791,
      -22.4875641,
      -3.7210462,
      -6.0768046,
      -9.7625628,
      -0.3951988,
      -2.4129174,
      -5.8449826,
      3.6469419,
      15.5702038,
      -0.4463508,
      -3.3780515,
      1.1415499,
      -5.1546702,
      -10.1966019,
      -6.9417653,
      -3.1447296,
      -6.8494129,
      -1.5134599,
      -0.7349179,
      -6.4922285,
      8.4217672,
      0.8067423,
      3.321779,
      -7.8984294,
      -11.1724863,
      -4.1934958,
      7.3384891,
      2.3917654,
      -3.2222161,
      -0.2525706,
      -5.6009345,
      3.3734794,
      -0.1780908,
      -2.0955629,
      16.9785194,
      2.6956043,
      6.0116429,
      11.0306444,
      0.2092008,
      0.0607196,
      -7.1971321,
      4.6595659,
      -5.8141088,
      4.722074,
      1.2709883,
      -0.8157237,
      8.3451815,
      -0.6024921,
      11.5533924,
      0.0578592,
      2.7879612,
      0.3533121,
      -2.6316917,
      4.5518708,
      3.5537784,
      4.3904657,
      2.5516937,
      3.561625,
      2.3757939,
      -3.4925461,
      3.0440919,
      -0.0494345,
      0.9796895,
      -5.7176352,
      -3.3444991,
      10.1243887,
      -15.3584061,
      0.467577,
      2.5476251,
      -0.050971,
      0.6871584,
      -5.0115714,
      -3.4544175,
      4.7212181,
      -3.0886481,
      -6.0517039,
      -2.6304297,
      10.0387259,
      -4.3429394,
      0.2698321,
      -4.6791525,
      -2.379189,
      -4.0179186,
      -10.4406567,
      7.8871446,
      12.2833786,
      -3.7746904,
      6.3694091,
      2.0355887,
      2.9436293,
      -0.9384643,
      9.3403416,
      4.5570621,
      3.3475168,
      2.752326,
      -9.0536757,
      1.0958735,
      -3.0262618,
      4.4564753,
      4.6263156,
      -2.3346722,
      -12.1636124,
      8.0040169,
      0.6328743,
      -1.6024193,
      -15.7392998,
      -0.4558491,
      -4.5748458,
      -8.774498,
      2.3490925,
      3.9655073,
      1.1776766,
      5.3977318,
      13.4373903,
      -8.4176264,
      4.7503881,
      -0.8415281,
      5.0567737,
      8.3102026,
      -4.1774173,
      5.7721438,
      2.6059065,
      -3.6941044,
      1.3121969,
      -11.6674128,
      -0.2798746,
      -3.2393703,
      5.1023698,
      3.3184314,
      -8.0145817,
      -2.746707,
      -9.7570887,
      2.28005,
      2.9301848,
      -2.5281868,
      -1.0108391,
      -3.7161577,
      0.5884054,
      -4.335196,
      -0.9897645,
      0.6508284,
      5.629313,
      3.418,
      8.2489004,
      -2.6643808,
      -6.3378482,
      5.019856,
      -9.1119232,
      7.1607504,
      -0.6112613,
      -0.9367278,
      9.3466234,
      -4.9785743,
      2.1065993,
      -25.0837269,
      2.395349,
      -8.6737499,
      8.239357,
      4.5879707,
      11.2769566,
      -10.6172256,
      -2.0774212,
      -0.2306647,
      0.1979135,
      3.0164332,
      -16.1195221,
      -0.3775296,
      3.1925263,
      -7.4036336,
      -7.5055242,
      8.7174511,
      6.7455044,
      0.5546317,
      -4.8837619,
      6.5052538,
      -2.0644014,
      3.4437511,
      5.3624978,
      -9.6678753,
      8.0038605,
      2.9025581,
      6.5061021,
      10.0572491,
      -6.0237246,
      5.5022993,
      6.2454815,
      0.7473221,
      2.0084689,
      0.4970886,
      -1.3617581,
      2.6245089,
      12.2427378,
      -21.8719444,
      0.6841276,
      -0.9123466,
      -10.1591425,
      -1.5683908,
      5.0846014,
      5.5063291,
      -1.7711885,
      -6.4573493,
      3.3790963,
      0.4820773,
      -6.51827,
      4.061729,
      -14.2382956,
      -0.6882074,
      3.8818109,
      -7.687376,
      8.2940454,
      -0.6454327,
      -8.8559265,
      2.0338867,
      3.387625,
      0.2241858,
      -2.0702784,
      -0.2184398,
      4.7793145,
      -8.4296999,
      -5.3989,
      4.1712608,
      6.2861438,
      8.5192947,
      4.2180576,
      -5.1071305,
      -7.090241,
      1.8057202,
      9.7912264,
      -4.553782,
      2.4374661,
      2.2354026,
      8.1363697,
      -0.4237179,
      -5.8897052,
      -3.4590542,
      1.6407534,
      -3.0382073,
      -8.7201786,
      5.9248762,
      5.0627093,
      9.9317579,
      -4.0653453,
      5.4018521,
      -7.3433466,
      -5.6518402,
      -0.5162906,
      4.5147905,
      26.0790291,
      2.5184968,
      -5.635262,
      4.0461111,
      -7.9154248,
      5.2407293,
      -3.3500047,
      -3.2940691,
      1.21903,
      -3.3876419,
      9.6713934,
      -2.4279938,
      -3.6372585,
      -6.8310728,
      -4.6393652,
      -11.8426027,
      -12.8762178,
      -19.5407429,
      8.3891888,
      0.2181144,
      2.1814516,
      1.2343216,
      -0.8996734,
      -3.5047767,
      2.0455911,
      -8.7852888,
      -5.6139884,
      -9.6754637,
      1.3603094,
      0.9492959,
      6.0415263,
      -0.2708405,
      -7.5429516,
      -3.0357039,
      -2.8617115,
      -0.250646,
      -3.3731384,
      -4.4531059,
      3.2674949,
      -1.4856138,
      9.1909695,
      2.0868583,
      -6.8631272,
      -10.1250801,
      12.8960857,
      4.6250262,
      -10.3187971,
      -2.2960451,
      -0.4772244,
      -0.0340486,
      -1.9693742,
      1.6127729,
      1.2927359,
      -4.4046588,
      1.205614,
      6.036376,
      4.5983715,
      -2.1920955,
      -0.1643669,
      8.7414608,
      -13.500618,
      4.6227379,
      1.0120977,
      -2.9001532,
      -4.4986353,
      4.6812,
      -4.3775349,
      -1.6491821,
      -3.1247797,
      0.0527029,
      -7.1490607,
      -0.6524046,
      -1.4486018,
      4.1424894,
      7.4511027,
      5.0529056,
      -6.2799435,
      3.8845153,
      2.5425246,
      -2.7320943,
      -9.9221449,
      5.8722792,
      -4.3282943,
      -3.1283605,
      3.0709889,
      0.5763761,
      -0.3657383,
      -5.9486098,
      -8.1326532,
      0.4324697,
      9.5627537,
      5.1198549,
      2.5144022,
      2.8975058,
      0.5366569,
      -2.8640819,
      -0.8870586,
      -5.946382,
      -8.3288136,
      3.372237,
      8.2266502,
      -8.1196384,
      -9.08988,
      -11.7378273,
      1.1421472,
      0.08859,
      -1.3363397,
      2.4074461,
      1.8255662,
      -1.5479276,
      3.6358154,
      4.1310439,
      0.4484612
    ],
    "parse_error": "",
    "perf": {
      "load_time_ms": 1241.85,
      "model_ftype_line": "llm_load_print_meta: model ftype      = I2_SR - 2 bpw ternary row-scale",
      "prompt_eval_ms": 129.47,
      "prompt_eval_tokens": 18,
      "prompt_eval_tokens_per_second": 139.02,
      "system_info": "system_info: n_threads = 24 (n_threads_batch = 24) / 24 | AVX = 1 | AVX_VNNI = 0 | AVX2 = 1 | AVX512 = 0 | AVX512_VBMI = 0 | AVX512_VNNI = 0 | AVX512_BF16 = 0 | FMA = 1 | NEON = 0 | SVE = 0 | ARM_FMA = 0 | F16C = 1 | FP16_VA = 0 | RISCV_VECT = 0 | WASM_SIMD = 0 | BLAS = 0 | SSE3 = 1 | SSSE3 = 1 | VSX = 0 | MATMUL_INT8 = 0 | LLAMAFILE = 1 | ",
      "total_time_ms": 150.15
    },
    "returncode": 0,
    "stderr_bytes": 9379,
    "stderr_tail": "llama_new_context_with_model: graph nodes  = 967\nllama_new_context_with_model: graph splits = 1\ncommon_init_from_params: warming up the model with an empty run - please wait ... (--no-warmup to disable)\n\nsystem_info: n_threads = 24 (n_threads_batch = 24) / 24 | AVX = 1 | AVX_VNNI = 0 | AVX2 = 1 | AVX512 = 0 | AVX512_VBMI = 0 | AVX512_VNNI = 0 | AVX512_BF16 = 0 | FMA = 1 | NEON = 0 | SVE = 0 | ARM_FMA = 0 | F16C = 1 | FP16_VA = 0 | RISCV_VECT = 0 | WASM_SIMD = 0 | BLAS = 0 | SSE3 = 1 | SSSE3 = 1 | VSX = 0 | MATMUL_INT8 = 0 | LLAMAFILE = 1 | \nmain: last token in the prompt is not SEP\nmain: 'tokenizer.ggml.add_eos_token' should be set to 'true' in the GGUF header\nbatch_decode: n_tokens = 18, n_seq = 1\nllama_perf_context_print:        load time =    1241.85 ms\nllama_perf_context_print: prompt eval time =     129.47 ms /    18 tokens (    7.19 ms per token,   139.02 tokens per second)\nllama_perf_context_print:        eval time =       0.00 ms /     1 runs   (    0.00 ms per token,      inf tokens per second)\nllama_perf_context_print:       total time =     150.15 ms /    19 tokens",
    "stdout_bytes": 9611
  },
  "schema": "seqcls_backbone_i2sr_smoke.v1",
  "status": "prototype_smoke_passed"
}
