{
  "checkpoint": {
    "accuracy": 0.6535914416709119,
    "architecture": "Qwen2ForSequenceClassification",
    "eval_examples": 9815.0,
    "method": "bitdistill",
    "path": "checkpoints/bitdistill-glue-seqcls-longwarmup/Qwen-Qwen2.5-0.5B/mnli/bitdistill-longwarmup-row-layer-8",
    "prediction_trace": "checkpoints/bitdistill-glue-seqcls-longwarmup/Qwen-Qwen2.5-0.5B/mnli/bitdistill-longwarmup-row-layer-8/eval_predictions.jsonl",
    "scale_mode": "row",
    "task": "mnli"
  },
  "classifier_head_application": {
    "bias_key": null,
    "embedding_shape": [
      896
    ],
    "finite_embedding": true,
    "finite_logits": true,
    "logits": [
      -0.4151099622249603,
      0.560107946395874,
      1.2931716442108154
    ],
    "prediction": 2,
    "probabilities": [
      0.10903681069612503,
      0.2891378402709961,
      0.6018253564834595
    ],
    "weight_key": "score_weight",
    "weight_shape": [
      3,
      896
    ]
  },
  "conversion": {
    "architecture": "Qwen2ForSequenceClassification",
    "bitdistill_subln": true,
    "checkpoint_dir": "checkpoints/bitdistill-glue-seqcls-longwarmup/Qwen-Qwen2.5-0.5B/mnli/bitdistill-longwarmup-row-layer-8",
    "classifier_head_npz": "models/seqcls-backbone-i2sr/Qwen-Qwen2.5-0.5B/mnli/bitdistill-longwarmup-row-layer-8_score_head.npz",
    "classifier_head_sidecar": "models/seqcls-backbone-i2sr/Qwen-Qwen2.5-0.5B/mnli/bitdistill-longwarmup-row-layer-8_score_head.npz",
    "classifier_head_tensors": [
      "score_weight"
    ],
    "converter": "3rdparty/llama.cpp/convert_hf_to_gguf.py",
    "converter_architecture": "Qwen2ForCausalLM",
    "copied_tensors": 170,
    "format_scope": "scalar-scale I2_S by default; row-scale only with --row-scale-prototype or --row-scale-qtype=i2_sr",
    "gguf_arch": "bitnet-qwen",
    "has_native_i2s_gguf_python_constants": true,
    "has_native_i2sr_gguf_python_constants": true,
    "i2_s_dtype": 36,
    "i2_sr_dtype": 40,
    "limitations": [
      "Rejects row-scale checkpoints unless --row-scale-prototype or --row-scale-qtype=i2_sr is passed.",
      "Scalar mode uses the existing tensor-scale I2_S layout.",
      "Row-scale prototype mode requires a matching experimental runtime layout and overloads I2_S.",
      "Row-scale i2_sr mode requires a runtime with a stable I2_SR qtype.",
      "Keeps output.weight in F16 by default to match llama-quantize policy."
    ],
    "mostly_i2_s_file_type": 40,
    "mostly_i2_sr_file_type": 41,
    "outfile": "models/seqcls-backbone-i2sr/Qwen-Qwen2.5-0.5B/mnli/bitdistill-longwarmup-row-layer-8_bitnet_qwen_i2_sr.gguf",
    "outfile_size_bytes": 369734976,
    "output_f16_tensors": 0,
    "output_ftype": 41,
    "output_ftype_name": "MOSTLY_I2_SR",
    "output_tensors": 338,
    "packed_i2s_bytes": 90678528,
    "rope_theta_from_rope_parameters": 1000000.0,
    "row_scale_i2s_packed": 168,
    "row_scale_prototype": false,
    "row_scale_qtype": "i2_sr",
    "row_scale_rejected": 0,
    "synthetic_vocab_for_smoke": false,
    "ternary_i2s_packed": 168,
    "ternary_state": "checkpoints/bitdistill-glue-seqcls-longwarmup/Qwen-Qwen2.5-0.5B/mnli/bitdistill-longwarmup-row-layer-8/ternary_state_dict.pt"
  },
  "date": "2026-05-15",
  "files": {
    "classifier_head": {
      "exists": true,
      "path": "models/seqcls-backbone-i2sr/Qwen-Qwen2.5-0.5B/mnli/bitdistill-longwarmup-row-layer-8_score_head.npz",
      "size_bytes": 11030,
      "size_mib": 0.010519027709960938
    },
    "conversion_summary": {
      "exists": true,
      "path": "benchmark_results/seqcls_longwarmup_backbone_i2sr_qwen_smoke_2026-05-15.json",
      "size_bytes": 2134,
      "size_mib": 0.0020351409912109375
    },
    "gguf": {
      "exists": true,
      "path": "models/seqcls-backbone-i2sr/Qwen-Qwen2.5-0.5B/mnli/bitdistill-longwarmup-row-layer-8_bitnet_qwen_i2_sr.gguf",
      "size_bytes": 369734976,
      "size_mib": 352.60675048828125
    }
  },
  "limitations": [
    "Classifier head is applied outside llama.cpp from an NPZ sidecar.",
    "GGUF does not yet contain sequence-classification label metadata or native score-head execution.",
    "Smoke validates a single prompt path only; it is not a full GLUE CPU accuracy benchmark.",
    "Default binary is the portable AVX2 build, not an AVX-512-tuned benchmark binary."
  ],
  "prompt": "Premise: A person is riding a bicycle. Hypothesis: Someone is outdoors.",
  "runtime_smoke": {
    "command": [
      "/mnt/slurm_nfs/a6abdulm/projects/BitNet/build-portable-avx2/bin/llama-embedding",
      "-m",
      "/mnt/slurm_nfs/a6abdulm/projects/BitNet/models/seqcls-backbone-i2sr/Qwen-Qwen2.5-0.5B/mnli/bitdistill-longwarmup-row-layer-8_bitnet_qwen_i2_sr.gguf",
      "-p",
      "Premise: A person is riding a bicycle. Hypothesis: Someone is outdoors.",
      "--pooling",
      "last",
      "--attention",
      "causal",
      "--embd-output-format",
      "json",
      "--embd-normalize",
      "-1",
      "-ngl",
      "0",
      "-t",
      "24",
      "-c",
      "128"
    ],
    "elapsed_seconds": 1.4918284169398248,
    "embedding": [
      -0.5110574,
      -0.1297612,
      -0.2376765,
      -0.9716485,
      -0.4204639,
      -0.2719392,
      -0.2117886,
      0.1000085,
      -0.2386483,
      0.9967044,
      0.3437071,
      0.2177485,
      -0.3356478,
      0.2431077,
      -0.1775677,
      -1.4281019,
      -0.2655895,
      0.1014337,
      0.2418214,
      0.2024535,
      0.2597934,
      0.6105869,
      0.0660953,
      -0.2396018,
      1.2849605,
      -1.3181931,
      0.4590652,
      -0.4199539,
      0.3208951,
      0.0786785,
      -0.057521,
      -4.0386539,
      -0.2191879,
      -0.3226428,
      0.8203469,
      -0.5688927,
      1.07955,
      -0.2474083,
      -0.1223841,
      0.8846726,
      -1.2840497,
      -1.0296139,
      -0.5403745,
      -0.2773426,
      0.5524618,
      -1.0733441,
      0.7923753,
      -0.9570917,
      0.8166889,
      0.6603801,
      -0.6924312,
      -0.4156347,
      0.0097913,
      4.7643976,
      1.239163,
      1.5331179,
      -1.4856718,
      -0.0412183,
      1.6014955,
      0.3440972,
      -0.0280727,
      0.4574406,
      0.5424776,
      0.0679316,
      0.9369962,
      -0.1307386,
      -0.7658249,
      0.420188,
      0.0390266,
      0.2069793,
      0.1071968,
      -0.0547027,
      0.7555798,
      -0.3571344,
      0.1907029,
      0.3081083,
      1.7565846,
      0.7967179,
      -0.4958929,
      -0.5348758,
      0.2189567,
      0.1875072,
      -0.1629646,
      -0.7316594,
      -0.3028313,
      1.0645729,
      -0.3373969,
      -0.7722864,
      0.0804347,
      -0.0816742,
      -0.2261078,
      1.4088843,
      -0.9122089,
      0.2648733,
      -0.1984285,
      -0.769922,
      -0.158381,
      1.66002,
      -0.4787598,
      -0.2933061,
      -0.4830346,
      -0.0315805,
      -0.9256562,
      0.3429179,
      -0.3905676,
      -0.6475218,
      -0.0089337,
      -0.560551,
      -0.54902,
      1.0582056,
      -0.0617689,
      -0.568633,
      0.3282701,
      -0.120448,
      -0.1121179,
      -0.3078986,
      -0.0075279,
      -0.5723749,
      -0.1398584,
      0.3699566,
      0.0017566,
      1.0095659,
      0.4638237,
      0.5688862,
      -0.024573,
      -1.0883607,
      0.3317809,
      -1.441327,
      0.2974178,
      0.0541665,
      0.1966544,
      1.5140984,
      -0.1317814,
      -0.3258511,
      0.3403123,
      -0.2426243,
      0.117057,
      -0.0721058,
      -0.416377,
      0.1944967,
      0.3373346,
      1.095384,
      -0.5160681,
      0.3881621,
      -0.6444767,
      0.3048901,
      5.5471253,
      -0.0233501,
      0.0354002,
      0.7065687,
      -0.4865754,
      -0.0875418,
      -0.1714402,
      -0.1226548,
      -0.5103284,
      0.4624312,
      0.7352899,
      1.6772035,
      -0.0595875,
      -0.184815,
      -0.2828944,
      0.7407412,
      0.1259114,
      -0.2401706,
      -0.3064456,
      0.2315527,
      0.0098713,
      0.0631391,
      -0.6021594,
      -0.17171,
      0.1009162,
      -0.2050623,
      -1.1231495,
      -0.0947557,
      -0.5615028,
      0.009037,
      -0.2151005,
      -0.0069926,
      0.0038691,
      -0.3373968,
      0.0660089,
      1.2046721,
      -0.2577773,
      -0.1812249,
      1.2662189,
      0.4324352,
      0.3336886,
      -0.4750334,
      0.7463793,
      -0.7920834,
      -0.0052979,
      0.6235719,
      -0.0707966,
      -0.0764147,
      -0.0358425,
      0.0739415,
      -0.4365197,
      0.5987243,
      1.1012394,
      0.7185584,
      0.538254,
      -0.3816991,
      0.4103753,
      0.0573061,
      0.0936069,
      -1.4636686,
      -0.2112699,
      -0.4568034,
      -2.0616496,
      0.0467724,
      -0.7177035,
      0.488179,
      -0.8409339,
      0.2614542,
      1.1064433,
      -0.4537096,
      -0.512613,
      -0.0230052,
      1.0548285,
      -0.1476342,
      -0.2259425,
      -2.0401108,
      0.316697,
      0.0355075,
      0.3686731,
      -0.1601071,
      1.1772059,
      -0.7444974,
      0.0894298,
      0.4277543,
      2.0649354,
      0.9303907,
      0.4912969,
      -0.2973524,
      -1.3351842,
      -0.311145,
      -0.7800555,
      0.074431,
      -0.5658465,
      0.9399772,
      -0.6030405,
      -1.7602161,
      -0.3304445,
      -0.7299947,
      0.2337207,
      0.1880572,
      -0.6709075,
      -0.6544606,
      0.3978839,
      -0.8171561,
      -3.5875537,
      -0.7048844,
      0.3552222,
      0.3421202,
      0.6001379,
      0.8422838,
      -0.461759,
      0.1788042,
      0.4366548,
      -0.2881098,
      0.1908842,
      -0.6699346,
      -0.0714922,
      -1.9938594,
      0.0292403,
      0.7185378,
      1.8999555,
      -0.63747,
      -0.6215883,
      0.2373447,
      -0.0777129,
      -0.5375382,
      0.4612118,
      0.3264245,
      0.1236622,
      -0.4867748,
      -0.1305875,
      0.120413,
      -0.2467209,
      -0.4995345,
      -0.1931375,
      0.0190565,
      -0.0155343,
      -0.8413244,
      -0.1785417,
      -1.3734744,
      -0.6413629,
      -0.591349,
      0.044185,
      1.1970085,
      -0.3743628,
      0.3617925,
      -0.5333492,
      -0.9268536,
      -0.3992044,
      -0.0589558,
      -0.5354906,
      -0.7265956,
      -0.2958759,
      -0.16746,
      0.278006,
      -0.3467177,
      -0.1982446,
      0.3821383,
      0.2158737,
      -0.041177,
      -0.1390671,
      -1.0465299,
      0.0194006,
      0.5145441,
      -0.7862133,
      1.0697223,
      -0.0780749,
      -1.5118757,
      0.3717282,
      -2.835495,
      0.5509583,
      -0.5820068,
      -0.1265202,
      0.2943012,
      0.0219363,
      0.2075548,
      0.5291285,
      0.8518295,
      -0.1675554,
      0.5753594,
      -0.4440819,
      -0.8607472,
      0.8942489,
      -0.3580232,
      0.0661077,
      -0.4847853,
      0.3646519,
      1.1418483,
      -0.5888088,
      0.0290017,
      -0.1904796,
      -5.0921893,
      -0.2200549,
      0.6287382,
      0.4890886,
      -1.7723786,
      -0.4996388,
      -0.456452,
      -0.4478828,
      0.6358635,
      0.1830554,
      0.3982915,
      0.2814947,
      -0.2527217,
      0.7021467,
      -0.8213836,
      -1.5384878,
      -0.1848642,
      0.451152,
      0.3526273,
      0.2247119,
      0.3040764,
      0.3714879,
      -0.257,
      0.2255564,
      0.2771918,
      -0.7792946,
      0.189175,
      -0.623902,
      -0.455471,
      -0.1848284,
      -0.6680287,
      -0.0356984,
      -0.5367658,
      -0.295955,
      -0.0681783,
      0.2964264,
      0.7157234,
      0.0457619,
      -0.2100384,
      -0.3910543,
      -0.2916483,
      -0.0825478,
      -0.9704157,
      0.1035162,
      0.2839509,
      -0.7270021,
      0.7830968,
      0.6758251,
      -0.0682299,
      -0.1555132,
      0.1073419,
      0.623053,
      0.114512,
      -0.6446273,
      0.1126759,
      0.6244487,
      -0.5638131,
      0.1115131,
      1.3210275,
      0.1296706,
      0.3103446,
      -0.454917,
      -0.5455838,
      0.164303,
      0.123775,
      -0.0797296,
      0.8317305,
      0.4566417,
      -0.8063574,
      -0.3088246,
      -0.0088201,
      -0.1439291,
      0.7652839,
      -0.6251373,
      0.2052735,
      -1.547985,
      0.0717486,
      0.2971737,
      0.1678563,
      0.0903703,
      -0.9921901,
      0.3710624,
      -0.343775,
      -0.5763719,
      0.6324521,
      0.0162881,
      0.0241101,
      0.3291849,
      -0.0626324,
      -0.2390565,
      0.6917847,
      -0.2407972,
      -1.1978949,
      0.7091434,
      0.7739642,
      0.0957269,
      -0.1786495,
      -0.8113033,
      0.9644079,
      0.4415142,
      -0.8162146,
      1.1808242,
      0.421997,
      -0.5888304,
      -0.5668504,
      -0.0364109,
      0.4954752,
      0.1824485,
      -0.2939952,
      0.3794862,
      0.0558122,
      0.0115435,
      -0.5828729,
      -1.9577963,
      -0.088564,
      0.1471665,
      0.6540956,
      -0.4311106,
      -1.7041022,
      -0.0821068,
      0.0647944,
      0.0512389,
      -0.2778502,
      -0.7886872,
      -0.4250978,
      -0.497041,
      -0.0153625,
      0.6800593,
      0.4577467,
      0.1411384,
      0.9625787,
      -0.2615127,
      -0.2032198,
      -0.8166208,
      -0.369077,
      -0.0902831,
      -0.2983748,
      -0.009815,
      0.0118009,
      -0.5895091,
      -0.2316952,
      -0.2160083,
      -0.0853461,
      -0.3214591,
      -0.3512085,
      0.4012832,
      0.5263445,
      0.1055152,
      1.6768532,
      0.692355,
      0.2454635,
      -0.189148,
      0.1675448,
      -0.3159493,
      0.4712492,
      -0.0483569,
      0.6114005,
      1.2186012,
      0.6592929,
      0.0930569,
      -0.4099924,
      1.3075191,
      -0.4261695,
      0.0748954,
      -2.1132646,
      -0.508653,
      -0.5325406,
      -0.0449282,
      -0.4331867,
      0.4944761,
      0.0319251,
      -1.2986394,
      0.2294766,
      -0.0835683,
      -0.0319374,
      -0.356719,
      0.3731394,
      -0.4179977,
      -0.2778025,
      -0.4091195,
      0.3332951,
      0.8361042,
      0.4960671,
      -0.5096416,
      -0.0699165,
      -1.0678939,
      -0.4625022,
      0.166767,
      0.7544717,
      -0.0596856,
      0.5811568,
      -0.2810953,
      -0.7203921,
      0.3262332,
      4.1913743,
      -1.4966434,
      0.4026779,
      -0.1898392,
      -0.2789439,
      0.4697963,
      0.0035969,
      -0.2552432,
      -0.4825836,
      0.0770933,
      0.0169759,
      -0.0349853,
      -0.0152167,
      0.635875,
      -0.1330934,
      0.4051087,
      -0.9445056,
      0.7223523,
      0.273088,
      -0.9253487,
      -0.7246014,
      -0.2364737,
      1.025468,
      0.0429606,
      -1.0998937,
      0.483882,
      0.9888054,
      -0.6996515,
      1.6481813,
      -1.2721936,
      0.2317264,
      -0.0044448,
      0.1048533,
      1.4935658,
      0.3260251,
      -0.1358171,
      0.0417416,
      -0.9902357,
      -0.0516308,
      2.8774543,
      0.5995626,
      -0.5258206,
      1.4366651,
      0.6414741,
      -0.280508,
      -0.5959265,
      0.4006995,
      -3.0380261,
      0.9601341,
      0.1342008,
      0.1060759,
      0.526426,
      0.65086,
      0.1236992,
      0.2971359,
      -0.0260518,
      -0.8501921,
      0.9514402,
      0.1027477,
      0.1291107,
      0.6836424,
      0.0377036,
      0.107701,
      -0.405952,
      0.2967986,
      -0.0264518,
      0.6724763,
      -0.9153156,
      0.9941645,
      -0.2853487,
      3.1589756,
      -0.3320279,
      0.0558628,
      0.6578647,
      -0.7253292,
      -0.8944358,
      0.2848004,
      -0.4585937,
      -0.292675,
      0.0612081,
      0.8366334,
      -0.2244391,
      -0.4347036,
      0.1938571,
      0.3521184,
      0.5140345,
      -0.9689263,
      -0.3767088,
      1.5597717,
      0.712854,
      0.3488081,
      -0.7684518,
      0.7787943,
      -0.4666876,
      0.1032359,
      0.4301649,
      -0.1145793,
      -0.7073742,
      -0.0997486,
      0.0488221,
      0.5003455,
      -0.3436286,
      0.4806896,
      -0.0635961,
      0.3182262,
      -1.4656883,
      -0.1337533,
      0.0128954,
      0.1854467,
      -0.1577109,
      -0.8758902,
      -0.0727553,
      -0.7195112,
      -0.0701086,
      -0.056058,
      1.6814466,
      -0.5318623,
      -2.6284893,
      0.096586,
      -0.799348,
      -0.0509875,
      0.0148491,
      -0.6836166,
      0.5812854,
      -1.8211091,
      -0.5637108,
      0.8572922,
      -0.144064,
      0.2797745,
      -0.125149,
      0.6078117,
      -1.2139444,
      0.1113683,
      -0.1926331,
      0.4679977,
      0.3394479,
      -0.0815027,
      -0.0612899,
      0.1851983,
      0.3843562,
      -1.0501262,
      0.6786534,
      -0.114993,
      6.503253,
      -0.3293798,
      -1.0596808,
      0.2705981,
      -0.2587408,
      0.2055213,
      -0.2183801,
      0.7311319,
      0.777857,
      -0.2654991,
      -0.2856843,
      -0.1164922,
      0.4289686,
      -0.4523147,
      1.4804007,
      -0.3169245,
      -0.3547671,
      -0.4251633,
      -0.1942462,
      1.0462879,
      -0.3989024,
      2.3912425,
      -0.0151933,
      1.4512731,
      -0.0038774,
      -0.0372587,
      -0.4212672,
      0.1023514,
      0.7266839,
      -0.4799258,
      -0.4171304,
      0.1551841,
      0.6043932,
      -0.2450883,
      0.7144297,
      -0.1614604,
      -0.4327859,
      -0.4978482,
      0.0653353,
      0.6958061,
      1.6103681,
      0.1163039,
      -0.53372,
      1.6478556,
      -0.1058943,
      -0.1589174,
      -0.3964843,
      -2.2707074,
      -0.3915742,
      -0.0755476,
      1.0511136,
      -0.5877482,
      -1.0855166,
      0.5488017,
      0.2607397,
      -0.4188838,
      -0.3049605,
      0.2859932,
      -0.1864269,
      -0.7706442,
      0.0324794,
      -1.3979777,
      -0.6637454,
      -0.0520057,
      0.1018368,
      0.2981523,
      -0.0713254,
      -1.5798564,
      -0.1415782,
      0.3166629,
      0.8945955,
      0.1363457,
      0.1545084,
      0.202298,
      -0.8247544,
      -0.3911361,
      -0.1123576,
      0.7460538,
      -0.4982099,
      0.274282,
      -0.425651,
      1.3980851,
      0.6723801,
      0.8026206,
      -0.3100755,
      0.6431481,
      -0.4540628,
      -1.2957852,
      0.4282356,
      0.3031479,
      0.6078077,
      -0.9910119,
      -0.3294113,
      -0.3260872,
      -0.6138365,
      -0.326462,
      0.2191716,
      0.55139,
      -0.6356677,
      -0.7094141,
      -0.279801,
      0.6321906,
      0.5833907,
      1.5246643,
      -0.4896859,
      0.0036311,
      0.4476555,
      -0.1163867,
      0.6563964,
      -0.8474525,
      1.1205219,
      0.4639573,
      -0.4503098,
      0.5407235,
      -0.3964845,
      -0.812421,
      -0.1523037,
      -0.2769784,
      0.7934989,
      -0.6016921,
      0.6754144,
      0.0745817,
      -0.2076024,
      0.1473535,
      -0.3392523,
      -0.4921138,
      3.9587007,
      1.1366299,
      0.547354,
      -0.2828619,
      -0.1455975,
      -0.257856,
      -1.2568904,
      0.1736875,
      -0.2913834,
      0.5784698,
      -0.859656,
      0.5353584,
      0.456975,
      0.3261427,
      -0.0563788,
      0.0774052,
      -0.5354254,
      -0.7486475,
      0.3042041,
      -0.1068013,
      -0.4012392,
      0.9353182,
      -0.2480448,
      0.7314728,
      -0.0167968,
      -0.0586342,
      -0.5395167,
      -3.3468208,
      1.1437117,
      -0.0985602,
      -0.7487166,
      -0.3103377,
      -0.4060842,
      -0.4309105,
      0.2092462,
      0.1206105,
      0.1041883,
      -0.0617288,
      -0.1624653,
      0.1226433,
      0.3387046,
      0.9406649,
      0.1306185,
      -0.9523898,
      0.5698756,
      0.8898081,
      0.7977708,
      0.5310006,
      0.8499048,
      0.4108142,
      -0.7174074,
      -0.5983675,
      0.2947788,
      -0.1661311,
      1.0462867,
      0.5705963,
      0.0376584,
      -0.4061317,
      1.5343879,
      0.3367851,
      -0.3471981,
      1.6433874,
      -0.1798078,
      -0.4363782,
      0.5912098,
      0.4507845,
      0.587672,
      -0.4706697,
      -0.6538585,
      -1.1931406,
      1.5075408,
      -0.1097154,
      -0.1454839,
      0.4035106,
      -0.6557827,
      0.2180552,
      -0.3237672,
      0.499877,
      0.6902691,
      -1.1895831,
      0.7485813,
      1.0616415,
      -0.137782,
      -0.4150971,
      -0.324956,
      2.1954529,
      -0.2286078,
      -1.3547006,
      0.214151,
      0.4662408,
      0.2448619,
      -0.9579029,
      -0.0927597,
      0.8084918,
      0.4511452,
      -0.6665203
    ],
    "parse_error": "",
    "perf": {
      "load_time_ms": 1281.77,
      "model_ftype_line": "llm_load_print_meta: model ftype      = I2_SR - 2 bpw ternary row-scale",
      "prompt_eval_ms": 78.72,
      "prompt_eval_tokens": 18,
      "prompt_eval_tokens_per_second": 228.66,
      "system_info": "system_info: n_threads = 24 (n_threads_batch = 24) / 24 | AVX = 1 | AVX_VNNI = 0 | AVX2 = 1 | AVX512 = 0 | AVX512_VBMI = 0 | AVX512_VNNI = 0 | AVX512_BF16 = 0 | FMA = 1 | NEON = 0 | SVE = 0 | ARM_FMA = 0 | F16C = 1 | FP16_VA = 0 | RISCV_VECT = 0 | WASM_SIMD = 0 | BLAS = 0 | SSE3 = 1 | SSSE3 = 1 | VSX = 0 | MATMUL_INT8 = 0 | LLAMAFILE = 1 | ",
      "total_time_ms": 102.65
    },
    "returncode": 0,
    "stderr_bytes": 9391,
    "stderr_tail": "llama_new_context_with_model: graph nodes  = 943\nllama_new_context_with_model: graph splits = 1\ncommon_init_from_params: warming up the model with an empty run - please wait ... (--no-warmup to disable)\n\nsystem_info: n_threads = 24 (n_threads_batch = 24) / 24 | AVX = 1 | AVX_VNNI = 0 | AVX2 = 1 | AVX512 = 0 | AVX512_VBMI = 0 | AVX512_VNNI = 0 | AVX512_BF16 = 0 | FMA = 1 | NEON = 0 | SVE = 0 | ARM_FMA = 0 | F16C = 1 | FP16_VA = 0 | RISCV_VECT = 0 | WASM_SIMD = 0 | BLAS = 0 | SSE3 = 1 | SSSE3 = 1 | VSX = 0 | MATMUL_INT8 = 0 | LLAMAFILE = 1 | \nmain: last token in the prompt is not SEP\nmain: 'tokenizer.ggml.add_eos_token' should be set to 'true' in the GGUF header\nbatch_decode: n_tokens = 18, n_seq = 1\nllama_perf_context_print:        load time =    1281.77 ms\nllama_perf_context_print: prompt eval time =      78.72 ms /    18 tokens (    4.37 ms per token,   228.66 tokens per second)\nllama_perf_context_print:        eval time =       0.00 ms /     1 runs   (    0.00 ms per token,      inf tokens per second)\nllama_perf_context_print:       total time =     102.65 ms /    19 tokens",
    "stdout_bytes": 9550
  },
  "schema": "seqcls_backbone_i2sr_smoke.v1",
  "status": "prototype_smoke_passed"
}
