{
  "checkpoint": {
    "accuracy": 0.6535914416709119,
    "architecture": "Qwen2ForSequenceClassification",
    "eval_examples": 9815.0,
    "method": "bitdistill",
    "path": "checkpoints/bitdistill-glue-seqcls-longwarmup/Qwen-Qwen2.5-0.5B/mnli/bitdistill-longwarmup-row-layer-8",
    "prediction_trace": "checkpoints/bitdistill-glue-seqcls-longwarmup/Qwen-Qwen2.5-0.5B/mnli/bitdistill-longwarmup-row-layer-8/eval_predictions.jsonl",
    "scale_mode": "row",
    "task": "mnli"
  },
  "classifier_head_application": {
    "bias_key": null,
    "embedding_shape": [
      896
    ],
    "finite_embedding": true,
    "finite_logits": true,
    "logits": [
      4.660641193389893,
      -5.45758581161499,
      -1.5491642951965332
    ],
    "prediction": 0,
    "probabilities": [
      0.997954249382019,
      4.0255061321659014e-05,
      0.0020055172499269247
    ],
    "weight_key": "score_weight",
    "weight_shape": [
      3,
      896
    ]
  },
  "conversion": {
    "architecture": "Qwen2ForSequenceClassification",
    "bitdistill_subln": true,
    "checkpoint_dir": "checkpoints/bitdistill-glue-seqcls-longwarmup/Qwen-Qwen2.5-0.5B/mnli/bitdistill-longwarmup-row-layer-8",
    "classifier_head_npz": "models/seqcls-backbone-i2sr/Qwen-Qwen2.5-0.5B/mnli/bitdistill-longwarmup-row-layer-8_score_head.npz",
    "classifier_head_sidecar": "models/seqcls-backbone-i2sr/Qwen-Qwen2.5-0.5B/mnli/bitdistill-longwarmup-row-layer-8_score_head.npz",
    "classifier_head_tensors": [
      "score_weight"
    ],
    "converter": "3rdparty/llama.cpp/convert_hf_to_gguf.py",
    "converter_architecture": "Qwen2ForCausalLM",
    "copied_tensors": 170,
    "format_scope": "scalar-scale I2_S by default; row-scale only with --row-scale-prototype or --row-scale-qtype=i2_sr",
    "gguf_arch": "bitnet-25",
    "has_native_i2s_gguf_python_constants": true,
    "has_native_i2sr_gguf_python_constants": true,
    "i2_s_dtype": 36,
    "i2_sr_dtype": 40,
    "limitations": [
      "Rejects row-scale checkpoints unless --row-scale-prototype or --row-scale-qtype=i2_sr is passed.",
      "Scalar mode uses the existing tensor-scale I2_S layout.",
      "Row-scale prototype mode requires a matching experimental runtime layout and overloads I2_S.",
      "Row-scale i2_sr mode requires a runtime with a stable I2_SR qtype.",
      "Keeps output.weight in F16 by default to match llama-quantize policy."
    ],
    "mostly_i2_s_file_type": 40,
    "mostly_i2_sr_file_type": 41,
    "outfile": "models/seqcls-backbone-i2sr/Qwen-Qwen2.5-0.5B/mnli/bitdistill-longwarmup-row-layer-8_bitnet25_i2_sr.gguf",
    "outfile_size_bytes": 369734912,
    "output_f16_tensors": 0,
    "output_ftype": 41,
    "output_ftype_name": "MOSTLY_I2_SR",
    "output_tensors": 338,
    "packed_i2s_bytes": 90678528,
    "row_scale_i2s_packed": 168,
    "row_scale_prototype": false,
    "row_scale_qtype": "i2_sr",
    "row_scale_rejected": 0,
    "synthetic_vocab_for_smoke": false,
    "ternary_i2s_packed": 168,
    "ternary_state": "checkpoints/bitdistill-glue-seqcls-longwarmup/Qwen-Qwen2.5-0.5B/mnli/bitdistill-longwarmup-row-layer-8/ternary_state_dict.pt"
  },
  "date": "2026-05-15",
  "files": {
    "classifier_head": {
      "exists": true,
      "path": "models/seqcls-backbone-i2sr/Qwen-Qwen2.5-0.5B/mnli/bitdistill-longwarmup-row-layer-8_score_head.npz",
      "size_bytes": 11030,
      "size_mib": 0.010519027709960938
    },
    "conversion_summary": {
      "exists": true,
      "path": "benchmark_results/seqcls_longwarmup_backbone_i2sr_smoke_2026-05-15.json",
      "size_bytes": 2081,
      "size_mib": 0.0019845962524414062
    },
    "gguf": {
      "exists": true,
      "path": "models/seqcls-backbone-i2sr/Qwen-Qwen2.5-0.5B/mnli/bitdistill-longwarmup-row-layer-8_bitnet25_i2_sr.gguf",
      "size_bytes": 369734912,
      "size_mib": 352.606689453125
    }
  },
  "limitations": [
    "Classifier head is applied outside llama.cpp from an NPZ sidecar.",
    "GGUF does not yet contain sequence-classification label metadata or native score-head execution.",
    "Smoke validates a single prompt path only; it is not a full GLUE CPU accuracy benchmark.",
    "Default binary is the portable AVX2 build, not an AVX-512-tuned benchmark binary."
  ],
  "prompt": "Premise: A person is riding a bicycle. Hypothesis: Someone is outdoors.",
  "runtime_smoke": {
    "command": [
      "/mnt/slurm_nfs/a6abdulm/projects/BitNet/build-portable-avx2/bin/llama-embedding",
      "-m",
      "/mnt/slurm_nfs/a6abdulm/projects/BitNet/models/seqcls-backbone-i2sr/Qwen-Qwen2.5-0.5B/mnli/bitdistill-longwarmup-row-layer-8_bitnet25_i2_sr.gguf",
      "-p",
      "Premise: A person is riding a bicycle. Hypothesis: Someone is outdoors.",
      "--pooling",
      "last",
      "--attention",
      "causal",
      "--embd-output-format",
      "json",
      "--embd-normalize",
      "-1",
      "-ngl",
      "0",
      "-t",
      "24",
      "-c",
      "128"
    ],
    "elapsed_seconds": 1.5061216668691486,
    "embedding": [
      2.3495419,
      -7.8573112,
      3.0195215,
      -4.4874411,
      1.272182,
      -6.0118895,
      9.0937357,
      3.2092836,
      -5.8850169,
      0.6307066,
      3.3607881,
      4.0405931,
      1.0970626,
      -1.4972529,
      -0.4317137,
      2.2710719,
      0.2152221,
      -7.4914536,
      -5.5262284,
      12.298563,
      -4.3719745,
      -8.1142273,
      0.7752284,
      11.5575151,
      3.7687738,
      -8.43328,
      -11.3126059,
      -7.0261116,
      -3.178807,
      -1.1119587,
      -3.8847339,
      -2.2436948,
      3.2300348,
      -0.8540261,
      8.610713,
      3.0558987,
      13.8490515,
      -11.6757326,
      10.1197472,
      3.3694232,
      -0.6990391,
      10.5937567,
      -5.2523966,
      0.9298956,
      -5.2140374,
      -2.5756729,
      2.0417979,
      -1.2509087,
      -5.2058325,
      0.4472443,
      -6.2403383,
      3.5889812,
      1.0176189,
      -34.3121452,
      -4.8475189,
      2.9602151,
      8.5450106,
      -5.686377,
      0.7048363,
      -8.8007574,
      -7.2678766,
      3.6308236,
      14.8819513,
      -4.0775142,
      6.3752704,
      3.2042401,
      -1.5058345,
      0.0702109,
      -4.196362,
      2.0081131,
      1.9161793,
      5.0315838,
      1.7661802,
      -2.9624233,
      -3.1874201,
      -10.5025768,
      2.7498696,
      2.1305742,
      -4.3759165,
      1.1460767,
      7.3772697,
      9.3122101,
      6.2775741,
      -12.7258215,
      1.5808886,
      14.1339493,
      9.1505585,
      -3.0550139,
      6.6570592,
      3.7924197,
      -7.2352252,
      6.5227637,
      2.2670836,
      1.643152,
      -11.59377,
      1.8268994,
      -6.3997169,
      3.4797852,
      4.7957344,
      3.8192031,
      -4.5580688,
      7.734992,
      3.5942008,
      12.5250854,
      7.2297626,
      -0.8352181,
      3.4526591,
      -0.7070129,
      -3.9282875,
      2.035176,
      -2.1951213,
      -9.3660831,
      -0.0849911,
      5.531878,
      2.0500693,
      -3.8219361,
      -5.2479277,
      7.1628346,
      -1.6368964,
      -2.9087331,
      -10.9252625,
      1.491206,
      -6.4592834,
      6.0961924,
      0.4059719,
      3.7613101,
      -4.2285662,
      -0.3184376,
      -7.1706557,
      5.2542977,
      2.1907303,
      4.0870829,
      -1.0890833,
      0.5052973,
      2.3577147,
      -1.3500416,
      1.8563126,
      -1.4184906,
      -13.7303581,
      4.2055559,
      -4.9310331,
      -24.4872437,
      0.3977448,
      0.5287471,
      -3.8908923,
      2.6936657,
      2.9160485,
      -0.3298049,
      0.5491858,
      7.2825284,
      -6.3451681,
      -6.8316846,
      -3.502995,
      0.4546377,
      2.0809481,
      -9.1703329,
      -5.681705,
      5.331677,
      6.4330168,
      2.6166782,
      4.4699345,
      1.8000975,
      2.4943933,
      3.0523441,
      -1.4591722,
      2.3094118,
      0.4947332,
      5.4963365,
      -4.0375671,
      -0.6276849,
      -9.337925,
      13.8381214,
      -5.6871557,
      -4.6984406,
      5.6561575,
      2.0134344,
      -5.7007437,
      5.8835187,
      -4.5353603,
      -1.61057,
      1.6473866,
      6.2240133,
      -4.3196483,
      -3.5554459,
      -3.8586159,
      -2.5997882,
      -1.0040762,
      -9.0389671,
      3.6403861,
      8.2701406,
      3.2154768,
      6.0280371,
      3.3247247,
      -6.2123151,
      3.4805808,
      -1.4625911,
      -3.6691716,
      1.9994562,
      4.4547291,
      2.2142115,
      -11.3954496,
      -0.4584732,
      1.3487612,
      6.551405,
      -3.2666309,
      -5.8541827,
      10.4410934,
      -4.6513944,
      -11.1563759,
      -3.9730852,
      2.5620201,
      -0.4323142,
      -8.5638065,
      -3.0920534,
      -0.2784718,
      0.0611163,
      -0.0446013,
      5.2322602,
      7.5528541,
      -0.2718399,
      6.7362485,
      -23.5247993,
      -8.3970232,
      6.1995912,
      0.8615443,
      -4.297627,
      -5.6698446,
      -0.3427896,
      0.7876338,
      4.3214593,
      -3.0550745,
      -1.973109,
      -0.4294605,
      5.1604047,
      1.3338811,
      -5.3652573,
      -11.8306351,
      9.3915253,
      -3.4073808,
      -7.0808806,
      -2.9104118,
      16.8080254,
      -2.7632754,
      -1.6293234,
      0.9476913,
      -2.6895123,
      1.5535414,
      8.0564184,
      -3.0486174,
      2.7295849,
      -11.8827562,
      -9.495204,
      -3.555171,
      -2.8546247,
      -1.1102597,
      -7.2003493,
      -4.4288135,
      -3.1429181,
      9.9318905,
      1.7504808,
      6.706933,
      -1.2029482,
      -11.2926092,
      1.1779335,
      2.2904353,
      0.9573197,
      2.9308474,
      4.8776011,
      -0.2574181,
      1.3942066,
      2.9150109,
      -3.9178543,
      2.487952,
      5.0851502,
      4.7488275,
      4.4669394,
      -5.5514627,
      0.1287613,
      -11.5598946,
      -0.7054182,
      -9.5116682,
      1.4143994,
      -2.568913,
      11.8402061,
      -3.7642705,
      -8.0041065,
      3.6887062,
      14.6852922,
      6.9610128,
      9.8616333,
      0.9824685,
      4.7126441,
      6.1182218,
      1.4983873,
      6.914907,
      17.9847374,
      -11.7494125,
      -5.3021665,
      -2.6088598,
      4.1656494,
      -8.2157297,
      3.8914835,
      1.5342965,
      -3.3207824,
      2.2245824,
      1.0609452,
      1.6775048,
      -1.8125724,
      8.4882193,
      -14.1533079,
      -0.4190131,
      -5.90803,
      -1.7152339,
      -5.2985597,
      2.2069912,
      20.8581238,
      2.0086389,
      -2.090142,
      8.7728605,
      7.3302827,
      0.0294982,
      2.8684342,
      1.6078182,
      1.5699039,
      -4.5387783,
      1.226137,
      -4.6165166,
      6.3059397,
      -0.7543274,
      -2.9969363,
      4.4656405,
      -5.9428535,
      1.7365853,
      17.0260143,
      -4.2105083,
      -0.3265337,
      5.0984178,
      -15.7229261,
      12.6442766,
      -4.373971,
      -6.0396171,
      1.9396408,
      4.5145378,
      2.6706681,
      -10.5804672,
      1.8287327,
      -2.2661834,
      0.495205,
      3.5974402,
      11.4115725,
      -4.6861625,
      8.3999357,
      -0.2328443,
      -8.7181358,
      -8.1892738,
      -1.3457023,
      -2.553745,
      5.5336919,
      0.4597961,
      -0.2429937,
      7.9014087,
      -0.479848,
      -0.6875407,
      4.8057213,
      5.1755996,
      -3.6950612,
      -4.8778253,
      3.68104,
      -5.600173,
      1.7743249,
      -3.2555921,
      -5.4649191,
      13.9282331,
      1.8765351,
      -0.8832173,
      -1.4177586,
      0.0370684,
      0.2489934,
      -4.351738,
      -3.4299519,
      1.9375111,
      -4.8180838,
      -4.7730198,
      -7.1013384,
      10.1845293,
      -6.8981857,
      7.0133348,
      -0.3932719,
      4.0391836,
      -4.990582,
      -0.4253771,
      3.0785387,
      -3.3482511,
      -8.7580576,
      11.0600996,
      -5.6140981,
      -1.2991544,
      1.8588147,
      -2.00207,
      -7.1049523,
      -1.4248576,
      -0.0128936,
      -3.4512088,
      -1.6073713,
      -0.3725771,
      6.9720964,
      5.9064136,
      -2.8322608,
      1.335077,
      4.4642682,
      8.3369732,
      -5.3344617,
      5.1982255,
      2.4198782,
      6.2781563,
      10.8169069,
      1.9624001,
      -5.7242937,
      6.511281,
      -3.7295415,
      3.2055907,
      -4.2098999,
      -1.2627456,
      -4.8343549,
      -2.8815069,
      -4.0706439,
      1.6487126,
      -1.4042809,
      2.8816047,
      1.1169828,
      -1.0461974,
      12.8587742,
      -3.2174654,
      6.2742581,
      1.3177141,
      -6.1002407,
      -1.5776925,
      0.0975069,
      -8.2513094,
      24.8018932,
      -4.5543036,
      -5.4016171,
      -2.4261317,
      8.4988661,
      0.0509348,
      5.2239757,
      4.440258,
      0.2705925,
      -4.9115772,
      -2.4344454,
      19.9971275,
      5.7797737,
      -3.1332617,
      3.7044275,
      2.087826,
      -3.715611,
      4.9878683,
      8.7661505,
      2.1455913,
      -0.5215713,
      -12.7937269,
      -11.7242212,
      0.2702582,
      0.7555176,
      0.148263,
      7.0332489,
      -9.0127163,
      -1.7832355,
      2.141103,
      12.1322565,
      -8.8588705,
      -3.8489347,
      1.2971702,
      -1.1055351,
      6.2678633,
      20.899826,
      -1.429155,
      0.207274,
      2.1478055,
      5.0183201,
      -10.2533398,
      0.5000678,
      2.3536105,
      4.2472672,
      0.9580908,
      -1.1967695,
      -4.0213571,
      -10.3998365,
      1.5332947,
      3.0577896,
      -0.1620336,
      0.4167186,
      -11.3065739,
      -10.5052052,
      -6.4205208,
      16.3414593,
      6.7843199,
      0.3517509,
      5.2722797,
      5.7710543,
      -8.0276499,
      -14.2332678,
      5.7398758,
      8.5268555,
      7.8581438,
      -1.1865906,
      3.4770112,
      -2.2752502,
      0.0562729,
      -0.1623353,
      8.6182365,
      -4.8584518,
      -5.8853741,
      -5.0904913,
      3.0380838,
      0.089799,
      -3.6271517,
      -1.0738198,
      -8.7857399,
      -1.7353193,
      7.417625,
      7.9887023,
      8.5288849,
      11.7090836,
      3.3276274,
      5.7004461,
      -3.9105766,
      -3.3251522,
      -0.5565236,
      -9.1346035,
      -0.4916643,
      -5.2756004,
      -0.5055081,
      11.8091888,
      -0.4443748,
      -2.204875,
      -19.7277641,
      -3.8916745,
      -0.8758634,
      -12.2276163,
      4.9115725,
      0.2277081,
      -3.89978,
      5.6012545,
      12.9267225,
      -0.5124593,
      -7.8781395,
      -2.2726007,
      -3.2423694,
      -11.9106216,
      -1.7083453,
      -1.9114414,
      -9.9512711,
      0.2344093,
      2.0837438,
      -5.354054,
      8.3631191,
      -0.1172107,
      3.9551725,
      -6.0419955,
      -10.3170137,
      -4.9178972,
      3.8419578,
      3.5315075,
      -2.6746619,
      0.193213,
      -2.4048023,
      8.5479727,
      -3.2321482,
      -5.9532752,
      19.469944,
      7.0086865,
      4.6521411,
      8.7532406,
      1.2569797,
      1.1545447,
      -6.6933093,
      4.7638736,
      -2.397006,
      0.9969538,
      2.1110094,
      -0.9700705,
      5.5255017,
      2.6783793,
      10.3426113,
      0.2047111,
      2.4012444,
      -1.8297607,
      -5.3082018,
      3.2475972,
      3.0941613,
      3.0041492,
      -0.2352484,
      0.7417582,
      3.4088237,
      -6.004426,
      0.2361516,
      -6.4279366,
      -0.7170137,
      -7.5654397,
      0.1853508,
      0.7745445,
      -15.0649405,
      1.5260743,
      4.6964583,
      2.2293983,
      0.3129441,
      -8.3108883,
      -2.137738,
      5.4600487,
      -5.947681,
      -8.0470943,
      -4.0113378,
      8.261796,
      -7.0116673,
      -4.2025223,
      -4.7680631,
      -2.2185557,
      -4.0023913,
      -11.6134701,
      3.74897,
      1.8666475,
      -0.5310514,
      9.7954683,
      3.9271286,
      -1.5691701,
      -3.3077006,
      12.5001431,
      6.3464041,
      3.7028987,
      2.8336582,
      -10.1859093,
      -0.4500262,
      -4.3716159,
      6.2823787,
      4.8737578,
      -3.0084169,
      -8.4747314,
      2.7882419,
      0.6959854,
      -6.6500349,
      -13.088728,
      1.8605825,
      -5.2093363,
      -9.5924635,
      1.4844681,
      2.5784552,
      3.8430891,
      6.2329159,
      10.6072273,
      -5.5075445,
      3.3395281,
      -2.9393299,
      4.8038449,
      9.4962006,
      -5.4391599,
      7.0770574,
      1.63783,
      -0.2133037,
      -0.5793796,
      -12.8971634,
      4.4690018,
      -1.1626424,
      1.3196781,
      0.3506984,
      -6.4796467,
      3.3693371,
      -6.6556692,
      0.669998,
      -0.8737264,
      -1.3497325,
      2.6304445,
      2.2620521,
      2.5110021,
      0.9478756,
      -1.7211757,
      2.8056486,
      3.4086742,
      3.5215786,
      7.6513958,
      -0.8357223,
      -7.0518723,
      6.403481,
      -7.1271715,
      2.64569,
      0.6553795,
      -6.8816404,
      7.2399154,
      -2.0960186,
      3.2834966,
      -25.4564037,
      3.0799642,
      -6.0464048,
      8.7924948,
      5.3703876,
      7.4888554,
      -8.9552889,
      4.6795049,
      0.5937204,
      -1.1326743,
      -0.5103754,
      -9.2029152,
      0.6093885,
      3.4983926,
      -4.4310536,
      -3.7433989,
      10.399847,
      8.0863724,
      1.2091371,
      -3.2418904,
      8.2814312,
      -1.0382125,
      7.0536742,
      2.8866966,
      -11.940897,
      6.1790442,
      5.2179251,
      0.8486969,
      7.3516273,
      -3.7389822,
      12.0109119,
      8.5313749,
      -3.1575861,
      -1.0135466,
      -2.1950948,
      -7.2531319,
      2.015238,
      9.0639906,
      -18.5645237,
      3.6802013,
      2.1167352,
      -10.8267012,
      -4.3699985,
      4.6297288,
      7.3531156,
      -0.975859,
      -4.4560089,
      3.3013396,
      -3.044317,
      -8.3796158,
      6.9331517,
      -8.9667778,
      -4.8359656,
      2.9276218,
      -8.0791082,
      5.8288746,
      0.0026274,
      -10.4669123,
      3.5300753,
      -0.5474976,
      2.4821379,
      -5.5465608,
      0.5085971,
      6.7154074,
      -8.251441,
      -4.0973811,
      -3.8153176,
      3.4116416,
      3.6194,
      6.4199362,
      -8.2721052,
      -7.8453455,
      1.7630059,
      9.548398,
      -1.4199994,
      -0.6637188,
      2.3125424,
      6.6600327,
      -2.1776903,
      -3.6110442,
      -4.2481055,
      8.347311,
      -5.0415611,
      -8.178565,
      5.6613369,
      -2.2689369,
      12.0216045,
      -6.0165963,
      5.2557917,
      -2.3665431,
      -9.7974997,
      0.6208299,
      3.6396558,
      17.7593803,
      1.2211401,
      -2.9485531,
      4.2143493,
      -8.4126759,
      5.8969607,
      -8.2730322,
      -1.1311758,
      0.0942344,
      -3.1964307,
      5.0044265,
      -2.6319067,
      -1.8125212,
      -5.5211058,
      -1.4343663,
      -10.7781849,
      -14.6290751,
      -17.8384743,
      9.0613861,
      -4.5868373,
      4.0697813,
      -1.7735405,
      2.7284832,
      -1.542739,
      2.0538602,
      -11.3461409,
      -3.7048333,
      -8.5237875,
      -1.5509572,
      3.464642,
      7.8105612,
      0.4088851,
      -3.8521817,
      -2.9182663,
      -6.7317133,
      -0.2097318,
      -2.0914371,
      -2.933816,
      6.4896255,
      -1.3050122,
      10.1817122,
      4.0582685,
      -6.9678965,
      -7.5740871,
      1.6293355,
      7.7439051,
      -6.8534117,
      -1.1090727,
      -0.0884653,
      -0.170947,
      -1.8680961,
      3.4929674,
      6.1834226,
      -5.1044464,
      -3.7333748,
      5.6718321,
      4.6808448,
      -0.2591943,
      -1.7510133,
      12.4702368,
      -7.9565406,
      7.9932899,
      1.0784154,
      -3.3946548,
      -4.2136831,
      4.9385486,
      -2.7534719,
      1.1557714,
      -7.325304,
      -1.1397157,
      -7.8179455,
      -1.7589915,
      0.0080829,
      2.0170519,
      7.3007741,
      7.664887,
      -4.9504609,
      6.5659761,
      5.5641098,
      1.0456386,
      -7.9499979,
      3.2726457,
      -6.5160904,
      -6.5533195,
      2.0459406,
      0.0004522,
      2.4013066,
      0.8239495,
      -6.3072758,
      -2.3039722,
      12.2393703,
      3.6165285,
      2.3343549,
      1.3377918,
      5.3602705,
      -1.5682566,
      -2.5642025,
      -1.6036946,
      -6.6262412,
      3.3611493,
      9.9970179,
      -5.7359939,
      -12.9190178,
      -10.6976471,
      1.9524224,
      5.340775,
      -2.3781395,
      1.3052254,
      1.1914257,
      2.8061531,
      5.2201772,
      2.9844823,
      -8.3723383
    ],
    "parse_error": "",
    "perf": {
      "load_time_ms": 1124.7,
      "model_ftype_line": "llm_load_print_meta: model ftype      = I2_SR - 2 bpw ternary row-scale",
      "prompt_eval_ms": 228.85,
      "prompt_eval_tokens": 18,
      "prompt_eval_tokens_per_second": 78.65,
      "system_info": "system_info: n_threads = 24 (n_threads_batch = 24) / 24 | AVX = 1 | AVX_VNNI = 0 | AVX2 = 1 | AVX512 = 0 | AVX512_VBMI = 0 | AVX512_VNNI = 0 | AVX512_BF16 = 0 | FMA = 1 | NEON = 0 | SVE = 0 | ARM_FMA = 0 | F16C = 1 | FP16_VA = 0 | RISCV_VECT = 0 | WASM_SIMD = 0 | BLAS = 0 | SSE3 = 1 | SSSE3 = 1 | VSX = 0 | MATMUL_INT8 = 0 | LLAMAFILE = 1 | ",
      "total_time_ms": 253.73
    },
    "returncode": 0,
    "stderr_bytes": 9268,
    "stderr_tail": "llama_new_context_with_model: graph nodes  = 967\nllama_new_context_with_model: graph splits = 1\ncommon_init_from_params: warming up the model with an empty run - please wait ... (--no-warmup to disable)\n\nsystem_info: n_threads = 24 (n_threads_batch = 24) / 24 | AVX = 1 | AVX_VNNI = 0 | AVX2 = 1 | AVX512 = 0 | AVX512_VBMI = 0 | AVX512_VNNI = 0 | AVX512_BF16 = 0 | FMA = 1 | NEON = 0 | SVE = 0 | ARM_FMA = 0 | F16C = 1 | FP16_VA = 0 | RISCV_VECT = 0 | WASM_SIMD = 0 | BLAS = 0 | SSE3 = 1 | SSSE3 = 1 | VSX = 0 | MATMUL_INT8 = 0 | LLAMAFILE = 1 | \nmain: last token in the prompt is not SEP\nmain: 'tokenizer.ggml.add_eos_token' should be set to 'true' in the GGUF header\nbatch_decode: n_tokens = 18, n_seq = 1\nllama_perf_context_print:        load time =    1124.70 ms\nllama_perf_context_print: prompt eval time =     228.85 ms /    18 tokens (   12.71 ms per token,    78.65 tokens per second)\nllama_perf_context_print:        eval time =       0.00 ms /     1 runs   (    0.00 ms per token,      inf tokens per second)\nllama_perf_context_print:       total time =     253.73 ms /    19 tokens",
    "stdout_bytes": 9607
  },
  "schema": "seqcls_backbone_i2sr_smoke.v1",
  "status": "prototype_smoke_passed"
}
